100 10
33 0.0064529064 -0.019189402 0.14601427 0.07278551 -0.07931951 -0.06889475 0.15412042 0.14744696 -0.15833755 -0.10793822
90 0.084568106 -0.033025548 0.041809656 0.04929677 -0.033083037 -0.015980344 0.11155412 0.061606012 -0.18098325 -0.1580996
69 0.08483568 0.029012216 0.1741768 -0.015117368 0.07957525 -0.031684022 0.09110036 0.12290834 -0.19473422 -0.11731173
16 -0.063345574 -0.03190424 0.19884156 -0.0935357 -0.0074323867 -0.017593674 0.17621216 0.0051431614 -0.11472247 -0.120261446
70 -0.08664153 0.031509563 0.0035885992 -0.062077567 0.015221764 -0.0010304648 0.010540378 0.1515902 -0.05357465 0.025227671
88 -0.071806476 0.03048446 0.022725932 -0.004215302 0.094150215 -0.043853078 0.10524743 -0.030154431 -0.10829223 0.048598513
99 -0.0067937467 -0.012463816 0.04185718 -0.093108155 -0.0030701908 0.026483625 0.07092922 0.105198964 -0.12170158 -0.03930845
52 0.06331366 0.06507778 0.07385095 -0.10972087 0.05767139 0.00804246 0.15866618 0.045107193 -0.12532797 -0.1513526
1 0.0020104318 0.008320345 0.15040264 0.051500455 -0.04204306 0.02001393 0.15098251 0.008878694 -0.1381899 -0.00011804106
13 0.02913757 -0.019917168 0.13182661 -0.016805816 0.11076298 0.052465696 0.0031545183 -0.011454236 -0.10028166 -0.0050581926
50 -0.078540556 0.021379195 0.12431654 0.043913364 0.08630311 -0.060995895 0.08039288 0.10551309 -0.10954751 -0.11331352
56 0.008024724 -0.10238791 0.042097535 0.051842116 0.049095806 0.07483701 0.15912172 0.13477077 -0.14729215 -0.07675911
2 0.03427349 -0.0671834 0.18856521 -0.11933124 0.08230325 0.03215093 0.05078215 0.10822339 -0.13710156 -0.008697159
79 0.11228716 -0.06480004 0.09203519 -0.07778671 0.052483976 0.030101143 0.16220357 0.12161061 -0.01595486 0.021239258
80 0.08952373 -0.08856706 -0.0025185011 -0.022861477 -0.017332003 0.08177778 0.14213395 0.036519933 -0.08450158 -0.046824504
4 0.086347915 -0.10888287 0.065185145 0.020636244 0.0029307085 0.08515516 0.15677676 0.10657054 -0.08351755 0.027788304
46 -0.074337415 0.014462953 0.036610022 -0.06650001 0.048469607 0.054705817 0.15622425 -0.0070253615 -0.02020655 0.006033089
65 -0.025388926 -0.108568594 0.14947283 0.048249852 0.00527977 -0.06565854 0.019054301 0.031484377 -0.05455375 -0.10616191
87 -0.087709144 0.0233377 0.11839432 -0.076111384 0.021941757 -0.021173507 0.06648854 -0.056162383 -0.051506612 -0.0978707
49 0.021475771 -0.035057038 0.11111672 -0.09552841 -0.013949007 0.029020537 0.13541265 0.028322121 -0.19286099 -0.020188576
28 0.013078037 0.010999143 0.020200126 -0.03094977 0.0896631 0.075736 0.04677828 0.07913449 -0.18299274 -0.0020376234
48 -0.039651975 -0.04710494 0.16991995 -0.0071344827 0.08643169 -0.058918558 0.12386324 0.14772661 -0.17019472 -0.108023606
83 -0.059878834 -0.0672598 0.052936886 -0.103927076 0.09285562 -0.04558644 0.16931807 0.10660504 -0.16717608 -0.024898093
63 0.063215844 -0.091895044 0.011883471 -0.04174641 -0.07392519 -0.014802882 0.07871054 0.08752667 -0.08149916 -0.07118564
15 -0.045634035 0.00096141896 0.07057643 0.05222384 0.05246065 0.047531277 0.0901752 0.02186769 -0.1333936 -0.067574635
54 0.024675634 -0.044438574 0.011546999 -0.09439509 -0.07758581 -0.05854333 0.061508708 0.008565238 -0.15811364 -0.09815807
21 0.053961586 -0.05610959 0.17697066 -0.0043898444 -0.058394402 0.09614935 0.16476 0.110839814 -0.17286138 -0.005741368
7 0.04896623 0.039464362 0.10123469 0.00880293 -0.023031771 0.085250236 0.15144064 0.07148482 -0.09383133 -0.042600505
30 0.020808596 -0.099690355 -0.012300345 -0.015737794 0.022376867 -0.05632238 0.01819836 -0.031185554 0.0055640303 -0.04750859
42 -0.036981743 0.0380702 0.18008383 -0.057566177 0.09473543 0.055073284 0.1452721 0.060434368 -0.015833128 -0.13398966
23 -0.072913915 0.076339774 0.08267206 -0.034758832 0.05954095 -0.039883167 0.10747807 0.12000657 -0.034149304 -0.13743572
34 0.106164485 0.029568588 0.122470304 -0.07851614 0.09687637 -0.01853656 0.1675697 -0.0031111701 -0.17554103 0.008112853
95 0.025386583 -0.036506 0.16486394 0.081191026 -0.08773573 0.027884765 0.12784892 0.08203233 -0.058511324 -0.045882475
51 0.019470017 -0.059337866 0.024747679 -0.041171834 0.055171203 0.09006488 0.18293138 -0.001039335 -0.2025555 0.0268851
73 0.045973063 0.032978587 0.14775506 -0.043867663 0.08598424 0.030816264 0.10712951 0.027049955 -0.12628101 -0.0848823
85 0.05109257 -0.014182349 -0.019995164 -0.11178921 -0.048335116 -0.00011428804 0.091445915 0.14033192 -0.029263573 -0.09612942
27 0.0117767565 0.034815896 0.15582703 -0.026222346 0.057153933 -0.055840228 0.06472592 0.12765026 -0.11053383 -0.15380073
6 0.06745062 -0.055067495 0.06745652 0.08437255 -0.009251578 -0.04541012 0.022502307 0.116933905 -0.14504719 -0.035855066
32 -0.040956378 0.043957435 0.117472515 0.011579856 -0.0040001716 -0.025032913 0.16052292 0.09744126 -0.10580626 -0.1477573
29 -0.06396848 -0.026423717 0.070443705 -0.041442644 0.10792948 -0.0024208785 0.13158594 -0.029859787 -0.112076424 -0.10954287
53 -0.062375713 -0.0061587375 0.022888502 -0.040574417 0.05283167 0.06053861 0.102102675 0.079245254 -0.14774753 0.0011027831
66 -0.05359944 0.030121619 -0.007059228 0.005574869 -0.037294563 -0.039763223 0.040189374 0.101978704 -0.02711017 -0.10660392
60 0.016519584 -0.10153039 0.15980898 0.07587752 -0.015464733 0.010101837 0.08171347 0.10393258 -0.17490013 -0.050761767
25 0.077320985 0.008931751 0.07716759 -0.10609116 0.09294098 -0.06092379 0.03232635 0.07341092 -0.08197547 -0.03318699
40 0.027258668 -0.08471075 -0.015264565 0.07428799 0.07515382 -0.0668081 0.11139068 0.05119797 -0.043410234 -0.12924062
44 0.047856737 0.0308224 0.16406277 -0.056803603 -0.0037041802 -0.07207689 -0.0387632 -0.052546997 -0.082577035 -0.11139673
20 0.057966754 -0.07632829 0.10216622 -0.0073366067 -0.020503957 -0.00815088 0.1738424 0.13997197 -0.13127272 0.03476353
31 -0.048060734 0.043833658 0.045596994 0.018640043 0.041279685 0.07233412 0.04834949 0.13577376 -0.010020213 -0.1528618
89 -0.07159649 -0.09405793 0.11014577 -0.04345981 -0.057095952 -0.07965818 0.15966922 0.07003694 -0.1845204 -0.10925275
12 0.04264517 -0.06318949 0.12936717 -0.057212066 0.037395157 -0.07804672 0.13361102 0.09413545 -0.078538366 -0.02518966
77 -0.08033076 0.0052663065 0.0760707 -0.11101498 -0.08177829 -0.013011795 0.12463437 0.08757265 -0.1606161 -0.1297135
26 -0.040643632 -0.040941466 0.012227201 -0.110533975 -0.015066364 -0.080587976 0.01840743 -0.004866204 -0.11780274 -0.0790503
39 -0.07769075 -0.026271187 0.17777248 0.057761624 -0.05526688 -0.03307912 0.12295875 -0.039441664 -0.09433796 -0.004865255
18 0.06510399 -0.10262953 0.02922103 -0.0956156 0.011842635 0.09241924 0.12835275 0.09519019 -0.031681336 -0.08623542
41 0.106250964 -0.090100884 0.0035970926 -0.036591854 0.0028401006 -0.029690083 0.06600682 0.120867744 -0.09169333 -0.07109458
17 0.037975676 -0.101091646 0.15857983 0.069012 -0.083455965 0.025057806 0.17435136 -0.029106572 -0.16006847 -0.13462932
82 0.09416184 -0.023940252 0.1718674 -0.096913666 0.049370915 0.029077576 0.083550565 0.07051473 -0.16497752 -0.15118307
92 0.03422445 0.04589107 0.15491897 0.04246023 0.0040465156 0.08579629 -0.020899866 0.07985617 -0.08180949 -0.0154781155
84 0.0845169 -0.08435547 0.13980843 -0.11101946 0.0046918048 -0.084734336 0.02946926 0.14487444 -0.11366852 -0.034210242
59 0.10041616 0.07360952 -0.009492009 -0.044388924 0.110243335 0.053518206 0.053354513 -0.041130308 -0.05220272 -0.12033604
71 0.09003228 -0.058909383 0.057708614 -0.0029230802 0.009121547 0.014331391 0.12826489 0.04248426 -0.10940821 -0.06605394
19 0.06860795 0.00055852125 0.061017465 0.07995086 -0.038521145 -0.0058199475 0.15583307 0.10834511 -0.061649777 -0.13602817
78 0.019304838 -0.03856328 0.16589338 -0.0041553145 0.02725225 0.025466627 0.050898608 -0.0066443 -0.079066865 -0.07239659
11 0.07665472 0.070187815 0.086370245 0.011404676 -0.046194106 0.020420225 0.020820959 -0.028724238 -0.16446255 -0.15782478
47 0.08158387 -0.07542296 0.16702944 -0.090154104 0.04854383 0.09769697 0.0024200205 -0.04896218 -0.13911863 -0.08873102
37 0.006059652 -0.10277058 -0.021271862 0.015846662 -0.07360778 -0.08915039 0.03812327 -0.048472106 -0.14559698 -0.13314025
45 0.007313802 -0.062767744 0.14981233 4.7193185e-05 -0.021452948 0.06277255 0.018426884 0.001623219 -0.16551866 -0.104875155
0 -0.011669489 0.050082337 0.039900497 0.03420232 0.078514524 -0.074601576 0.11056628 0.10346284 -0.105783105 0.017099379
55 0.07150986 -0.07871184 0.010018669 0.01042118 -0.005978152 -0.05751124 0.16729403 -0.0053861775 -0.15210675 -0.056805834
36 -0.018494828 -0.007934759 0.024767887 -0.016453091 0.0029499282 0.010163337 0.1377672 -0.023113132 -0.08273167 0.013004998
72 0.08874078 -0.058308236 0.15827678 0.06812222 -0.032945946 0.003672797 0.108647525 0.0022652715 -0.13222744 -0.11429986
22 0.003481868 -0.02225039 0.13329248 -0.039997254 0.011760729 0.026401704 0.1286114 0.051294055 -0.16092625 -0.15637743
10 0.010564574 0.04783335 0.10932825 -0.10749468 -0.06650735 0.06709621 0.048960168 0.11670981 -0.17250977 0.016162992
91 -0.05546894 0.017618977 0.06278399 -0.08179007 -0.021159431 -0.010137579 0.01589955 0.032772467 -0.15938 -0.028871091
61 0.10368078 -0.04273122 0.07689309 0.018083263 0.09900843 -0.056659225 0.0126199545 0.02287023 -0.007720883 -0.054311477
24 -0.077174924 -0.03103044 0.17940097 -0.09235477 -0.03960656 0.094619565 -0.011450509 0.08893661 -0.08618217 0.0059909737
9 0.0911511 -0.043695856 0.040727656 0.0746354 0.033979215 0.06394544 -0.019914964 0.14394861 -0.1025683 -0.118992776
67 0.03718056 -0.019905163 0.12794441 -0.039524864 -0.027642304 0.024194455 0.16092104 -0.0018796171 -0.063953646 -0.14093216
62 -0.05949381 -0.021378893 -0.009564029 0.013256226 0.027263744 -0.020672442 0.12438405 0.14539959 -0.0029456043 -0.07584588
96 0.032069415 -0.0599161 0.0070783384 0.04636544 -0.0060590934 -0.004695756 0.06626205 0.008984163 -0.059472576 -0.10918005
8 -0.08401626 0.069867514 0.13630816 0.07498298 0.08152621 0.0314024 0.18975759 0.012597384 -0.17512359 -0.029321896
94 0.047007084 -0.072966695 0.17368013 -0.049502216 0.10733021 0.010321452 0.008541291 0.02657808 -0.15808769 -0.08565426
86 0.01955225 0.080897585 0.16617754 -0.079825036 0.04654645 0.024628399 0.042545322 -0.04951534 -0.07125979 -0.13347125
5 0.069765694 -0.07133777 0.11919117 0.085034475 0.008625107 0.04745629 0.04214318 0.112310104 -0.032697536 -0.135785
81 -0.013174458 0.018238122 0.080522396 -0.026159652 0.00077808206 -0.014063731 0.08313263 0.09172163 -0.13510188 -0.09755869
98 0.0036497791 -0.00826381 0.056481935 -0.06046362 0.05377025 -0.021931902 0.07708204 0.043031845 -0.0053972006 -0.11070205
64 -0.060960285 -0.05752532 0.16191943 -0.028790517 -0.08374621 -0.0034566491 0.019905502 0.100452244 -0.17176361 -0.021422692
93 -0.08382579 -0.004034701 0.13994205 0.06000164 -0.063706964 -0.060129307 0.006349569 -0.03204087 -0.18624218 -0.07958832
97 -0.00018547472 -0.08696419 0.13375728 -0.00077647466 0.06965876 0.016010122 0.06884424 -0.033279616 -0.096111424 -0.004216247
76 -0.042626508 -0.0032160939 0.09676854 -0.027619574 0.108949564 0.08437679 0.08668501 0.11091449 -0.014616826 -0.10340018
58 -0.04438799 -0.08025351 -0.015320928 0.07116847 -0.010454085 -0.06774007 0.015431102 0.088395536 -0.09905891 -0.083299704
43 0.027016535 -0.045224115 0.062156003 -0.0042000674 -0.017358292 0.08737093 0.11282258 -0.053854335 -0.027229132 -0.12323114
14 0.017975388 0.025868276 0.028317945 -0.0374391 0.093680345 -0.04081453 0.0010413381 0.14177598 -0.112271756 -0.10565392
57 0.09284299 0.029462138 0.10984701 0.0791656 -0.0738927 0.052180953 0.0802185 0.08305485 -0.05761992 -0.0035656637
38 0.05474671 0.0466926 0.037570026 -0.06019269 0.005232333 0.027713459 0.032332618 0.102704026 -0.03694999 0.026954861
75 0.031857762 0.06894705 0.041883077 0.07083217 0.045088865 -0.07896715 0.014191204 0.011077283 -0.013885023 -0.0494018
68 -0.019589169 0.06434414 0.1612225 -0.028001036 -0.041602455 -0.045176037 0.015188224 -0.05568201 -0.06270556 -0.09214294
35 0.030428154 0.045606885 0.008020918 -0.10605701 0.022857325 -0.06620912 0.07078586 -0.007830482 0.016112216 -0.029534778
74 0.042643137 -0.039680395 0.04415857 0.06506852 0.023848759 -0.05713593 -0.022691369 0.046997294 -0.00462602 0.011209448
3 -0.08318798 0.073311396 0.099505395 0.06312343 0.106277 -0.07103245 -0.035124246 0.093293935 0.027515534 -0.008035638
